%YAML:1.0
---
my_detector: !!opencv-object-detector-hog
   winSize: [ 64, 64 ]
   blockSize: [ 16, 16 ]
   blockStride: [ 8, 8 ]
   cellSize: [ 8, 8 ]
   nbins: 9
   derivAperture: 1
   winSigma: 4.
   histogramNormType: 0
   L2HysThreshold: 2.0000000000000001e-01
   gammaCorrection: 1
   nlevels: 64
   signedGradient: 0
   SVMDetector: [ 4.09069732e-02, 9.16705206e-02, 2.99915019e-02,
       -7.63448467e-03, -1.11434788e-01, -7.00937957e-02,
       -2.34239362e-02, -2.77248882e-02, -6.44499958e-02, 6.58003390e-02,
       9.48204994e-02, -8.69667716e-03, 3.15003283e-03, -4.28998210e-02,
       4.44930559e-03, 1.20329624e-02, -5.14097745e-03, -7.47376978e-02,
       5.27199320e-02, 8.56497064e-02, 8.16069171e-03, 3.76031362e-02,
       -5.84904365e-02, -4.87277955e-02, -8.67473241e-03,
       -9.09310207e-03, -2.64713392e-02, 9.69678015e-02, 8.46183449e-02,
       2.33494584e-03, 3.73309740e-04, -7.63100851e-03, -2.07603676e-03,
       5.75495511e-03, -2.75284667e-02, -4.68696132e-02, 1.12996064e-01,
       1.07040286e-01, 1.59556493e-02, -7.55683891e-03, -2.09654751e-03,
       -7.16059981e-03, 5.11602964e-03, 2.13781046e-03, -3.41078453e-02,
       5.07648215e-02, 8.76604617e-02, 1.23092141e-02, -1.21220537e-02,
       1.83269400e-02, -1.32618705e-02, 3.95858251e-02, 1.18693700e-02,
       -2.19915845e-02, 7.38520250e-02, 6.11375608e-02, -1.14792753e-02,
       -8.75033811e-03, 5.44431154e-03, -2.22485252e-02, -1.93241891e-03,
       -1.52557176e-02, -1.62082072e-02, 4.33488563e-02, 3.96966711e-02,
       -6.48324098e-03, -1.45754600e-02, -9.58349928e-03,
       -3.39677520e-02, 1.35715129e-02, 3.97376111e-03, 1.18571864e-02,
       3.41637549e-03, 7.16804639e-02, 3.58825736e-02, 2.56122984e-02,
       4.95626545e-03, -1.78239588e-02, 4.57209609e-02, 2.74452791e-02,
       -2.02921461e-02, 1.58281680e-02, 4.41684499e-02, 2.65303906e-02,
       2.78478060e-02, -5.95187303e-03, -5.45739522e-03, 2.66805366e-02,
       2.55701621e-03, -2.26337798e-02, 1.59875974e-02, 2.15743179e-03,
       -3.75851872e-03, 8.75967729e-04, 2.96097528e-03, 1.00923683e-02,
       3.00188977e-02, 8.79531261e-03, 3.94111546e-03, -1.19273446e-03,
       -9.06533282e-03, -1.61280036e-02, 4.18219343e-03, 2.92393453e-02,
       2.75360886e-02, 1.15001900e-02, 2.46682763e-03, 3.60181625e-03,
       3.05782147e-02, 8.69626701e-02, 4.99084294e-02, 2.52841078e-02,
       -1.51432594e-02, 1.54205142e-02, 5.20300381e-02, 4.58063260e-02,
       9.03720595e-03, 4.75630630e-03, 3.93332094e-02, -2.21501128e-03,
       -7.30641931e-03, -2.32370514e-02, 7.59550603e-03, 6.13026274e-03,
       1.68599803e-02, 2.24770624e-02, 2.89695617e-03, 5.87257482e-02,
       2.27058232e-02, 1.79599747e-02, 1.78105652e-03, 3.54696810e-02,
       3.18453573e-02, 4.69678603e-02, 2.84060761e-02, -1.99571922e-02,
       2.06392119e-03, -9.16146766e-03, -4.26498381e-03, 1.72609102e-03,
       5.80829978e-02, -1.25750061e-02, 4.87382896e-03, -1.48913506e-02,
       -4.15438320e-03, 4.91412915e-02, -7.15308997e-05, -3.00953136e-04,
       6.56116102e-03, 1.25055620e-02, 8.96472018e-03, 5.08327149e-02,
       3.72650735e-02, 2.10874551e-03, 1.47594120e-02, -7.16772629e-03,
       -1.10477461e-02, 1.68241505e-02, 1.52119878e-03, 5.26693300e-04,
       3.11928019e-02, 1.59209296e-02, -5.24128973e-02, -1.55531727e-02,
       -1.85152739e-02, 2.09407676e-02, 4.98935813e-03, 3.45010273e-02,
       -3.03015336e-02, -4.47955728e-03, -1.92137789e-02,
       -3.24522108e-02, -2.35301163e-02, -1.77290607e-02, 4.05309796e-02,
       2.73426902e-02, 6.18137754e-02, -2.48729382e-02, -2.59519555e-03,
       -1.82468258e-02, 5.73036112e-02, 1.06561193e-02, -8.07154365e-03,
       3.01446170e-02, -3.23608704e-02, -4.31624167e-02, -3.30517977e-03,
       1.77414827e-02, 3.37990522e-02, 1.62664533e-01, 1.16504058e-01,
       6.10252544e-02, 8.16313252e-02, -6.64036572e-02, -4.64288071e-02,
       -2.32246350e-02, 2.90047191e-03, 4.99205180e-02, 1.45924476e-03,
       -2.64444016e-02, -3.58127095e-02, 3.99522707e-02, 1.87874008e-02,
       4.39288840e-02, -1.79681070e-02, -2.12875176e-02, -3.77209187e-02,
       5.24888560e-02, 3.75190489e-02, 2.73097735e-02, 9.09851491e-02,
       -2.58410685e-02, 5.99513575e-02, 1.63107459e-02, 2.70899702e-02,
       -1.76456515e-02, 1.22657485e-01, 4.72554378e-02, -2.30397051e-03,
       -4.31117117e-02, -3.24068777e-02, 2.41145166e-03, -2.33353581e-02,
       -1.20235886e-02, 2.75817998e-02, -1.42178554e-02, -3.17030102e-02,
       -5.26515916e-02, -9.95442644e-02, 8.09242353e-02, 1.64730161e-01,
       -2.02291943e-02, 1.58623476e-02, -4.41208780e-02, 7.90048987e-02,
       4.16718200e-02, 2.81732306e-02, 4.61131008e-03, 7.45974947e-03,
       5.40091544e-02, 8.92686564e-03, 4.27072570e-02, 2.53663715e-02,
       3.06468494e-02, 4.43670824e-02, 1.72405746e-02, 2.01363005e-02,
       9.86057669e-02, 1.72655597e-01, -1.31318485e-02, 5.38944528e-02,
       2.21128259e-02, -2.95094214e-04, 3.99185009e-02, -2.46856231e-02,
       1.26097396e-01, 4.33246791e-02, -5.14036454e-02, -9.38631780e-03,
       -1.25468448e-02, -5.87105528e-02, 4.86017540e-02, 5.73827773e-02,
       -5.27175292e-02, -5.97240683e-03, -4.08233218e-02,
       -1.32156191e-02, -6.46810187e-03, -3.82873006e-02,
       -8.34370181e-02, -1.31373750e-02, 1.16009666e-02, -4.68799472e-02,
       9.14321467e-02, 3.67611945e-02, -9.00068507e-02, -3.89517881e-02,
       -2.33843829e-02, -6.03749715e-02, 2.11666487e-02, 2.90528368e-02,
       -2.84384247e-02, 2.64571281e-03, -2.62432508e-02, -5.39488671e-03,
       -3.29778239e-04, -4.62517049e-03, -6.91788122e-02, 5.97608648e-02,
       3.74462157e-02, -6.14935383e-02, 1.84713528e-02, -1.17568988e-02,
       9.93567985e-04, -2.54041376e-03, -8.99161398e-03, -2.75825299e-02,
       7.38431979e-03, 6.57527102e-03, -2.22550407e-02, 5.16773425e-02,
       6.93816412e-03, -7.44616194e-03, -1.39409695e-02, -2.37565096e-02,
       -4.05856147e-02, 3.71378437e-02, 3.19774151e-02, -4.47990522e-02,
       -1.60334408e-02, -2.76592113e-02, -3.90011049e-03, 1.17473528e-02,
       3.53368670e-02, -1.50682153e-02, 3.62746185e-03, 4.11967281e-03,
       1.48671614e-02, 1.16364239e-02, -2.31559779e-02, -1.95138494e-03,
       -2.79918443e-02, 4.88015916e-03, -2.83954702e-02, -2.61700246e-02,
       -2.09237449e-02, -1.71359666e-02, 1.56582780e-02, 1.57772191e-02,
       2.64655165e-02, 1.52789308e-02, 1.49077624e-02, -6.15054742e-03,
       -1.84351839e-02, 5.86057873e-03, -4.16120663e-02, 1.73472036e-02,
       2.10720603e-03, 3.84704722e-03, -1.81094594e-02, 2.09851414e-02,
       -1.04560133e-03, -1.83706433e-02, -1.25627527e-02,
       -3.71603644e-03, -1.00257888e-03, -1.68321989e-02, 5.23441285e-03,
       -6.72240788e-03, 1.85778756e-02, -9.08956677e-03, 4.74292785e-04,
       -1.42523069e-02, -2.59828940e-02, 2.95349844e-02, -1.31797800e-02,
       2.45987847e-02, 4.17751668e-04, 3.51467244e-02, 1.78806612e-03,
       -2.01219544e-02, 4.26076241e-02, -1.90301836e-02, -1.90147199e-02,
       2.99440394e-03, 1.71445720e-02, 2.12282259e-02, 3.71298864e-02,
       4.18900838e-03, -3.42114829e-02, -4.11786512e-03, -1.95896998e-02,
       -1.94307100e-02, 2.28768680e-03, 2.49175429e-02, 7.46542681e-03,
       2.83720368e-03, -1.69958230e-02, 2.28156522e-02, 2.36729980e-02,
       1.34435305e-02, 2.23562531e-02, -1.21400389e-03, 2.41201352e-02,
       3.00986543e-02, 4.72137369e-02, 1.29659176e-02, 2.07680985e-02,
       -1.54750329e-02, 2.06072954e-03, 4.69301268e-02, -2.93077715e-02,
       5.39168231e-02, 1.86145511e-02, 3.52508277e-02, 4.05574888e-02,
       -3.77126634e-02, -1.81216355e-02, -2.52342597e-02,
       -3.18709016e-02, 3.09230797e-02, -1.64853111e-02, -2.69248206e-02,
       7.01736799e-03, -3.84151237e-03, -1.24724861e-02, -4.86259302e-03,
       -1.52775450e-02, -1.38730211e-02, 9.61997639e-03, -2.21224278e-02,
       -3.41464318e-02, 3.72127723e-03, -8.64447374e-03, -2.21519470e-02,
       -1.77791361e-02, -1.24659846e-02, 1.07221194e-02, 1.22628734e-02,
       2.61153225e-02, -1.53552303e-02, 1.37834344e-02, 1.15209986e-02,
       -1.58593357e-02, 2.04261802e-02, 1.28181688e-02, 2.40230989e-02,
       2.14925758e-03, 3.36739756e-02, -1.77593734e-02, 7.64007680e-03,
       -1.71394106e-02, -1.80895422e-02, -1.61707997e-02,
       -3.65348570e-02, -3.85511406e-02, 1.40817733e-02, -4.21553664e-02,
       -2.69280970e-02, -2.00976431e-02, -4.35716435e-02, 1.63063873e-02,
       3.28363068e-02, 1.08167576e-02, 7.07234889e-02, -2.44581699e-02,
       -1.11943753e-02, -9.55932401e-03, 1.56678520e-02, -5.78186428e-03,
       3.28844204e-03, 1.32626425e-02, -7.97775947e-03, 4.74174740e-03,
       2.16686632e-02, -1.11565739e-02, -3.13329883e-02, 6.84254570e-03,
       -1.93849616e-02, 5.99547215e-02, 5.38700484e-02, 2.20972281e-02,
       1.38219878e-01, -2.72618365e-02, 9.79199186e-02, -2.83027184e-03,
       5.71298972e-02, 2.64638290e-02, 5.30806044e-03, -4.33765003e-04,
       -2.35891417e-02, -5.88060543e-02, -1.77374855e-03,
       -4.34371196e-02, -2.98741423e-02, 4.90516350e-02, -1.80726557e-03,
       -2.31982302e-03, 2.04939190e-02, -1.36329569e-02, -7.09640905e-02,
       7.79394284e-02, 3.60090584e-02, -6.41906187e-02, 3.00994087e-02,
       -2.28487216e-02, 5.83159551e-02, 5.50553016e-02, 1.25104105e-02,
       6.34694053e-03, 3.45852114e-02, 1.56210875e-02, -3.62391695e-02,
       8.75314251e-02, 7.89791793e-02, 2.53631771e-02, 3.41601521e-02,
       -1.61236636e-02, -3.75452787e-02, 1.60695030e-03, 7.87406787e-02,
       -4.97268997e-02, 6.13402724e-02, 4.89684120e-02, -6.43956587e-02,
       -3.09031289e-02, -1.00249499e-01, 1.29907116e-01, 8.58647376e-02,
       -1.10575303e-01, -4.51523662e-02, -9.25741252e-03,
       -6.92399666e-02, -2.72093173e-02, 1.20990053e-02, -4.44635749e-02,
       4.20018565e-03, 3.17976885e-02, -4.29135188e-02, 2.12285528e-03,
       5.52962860e-03, -5.65796979e-02, -4.49126102e-02, -4.29423898e-02,
       -1.10096231e-01, 9.03091431e-02, 8.41694605e-03, -9.34845861e-03,
       -7.55184591e-02, -2.20114328e-02, -3.71642299e-02, 3.77998734e-03,
       3.17328586e-03, -2.89540160e-02, 5.29068615e-03, 3.18144709e-02,
       1.06591722e-02, -1.45655060e-02, -2.08557540e-04, -1.43400906e-03,
       1.21835116e-02, 1.93149243e-02, -4.32366915e-02, -3.56088839e-02,
       -2.50643902e-02, 1.62589476e-02, 1.88937876e-02, 4.80096526e-02,
       2.26437300e-03, -1.08114565e-02, 1.17291522e-03, -3.76292062e-03,
       1.91985574e-02, -5.39691653e-03, -2.22908929e-02, -2.85076462e-02,
       4.55217995e-03, -1.75246503e-02, 1.46557605e-02, 1.39435213e-02,
       -2.73590274e-02, 1.53229265e-02, -2.41555995e-03, 7.68214017e-02,
       2.69770380e-02, 3.19203921e-02, 1.64868627e-02, -2.38315128e-02,
       -6.11325027e-03, -2.75874753e-02, 1.76457912e-02, -6.28036074e-03,
       7.17530474e-02, -2.90969713e-03, 2.11790726e-02, -1.25989970e-02,
       -2.88214646e-02, -6.33237045e-03, -7.16545805e-03,
       -9.35567264e-03, 1.10475253e-02, -4.19825912e-02, -1.48958452e-02,
       2.26124022e-02, -1.72883291e-02, -1.05924509e-03, 1.02817658e-02,
       1.37044804e-03, 1.52428057e-02, -6.29661512e-03, -1.60499488e-03,
       -9.06259194e-03, 2.30327900e-02, 2.48102890e-03, -2.80590020e-02,
       -1.11943940e-02, -2.02073324e-02, -1.40841119e-03, 1.34467166e-02,
       5.39350603e-03, -7.85531476e-04, 2.03558560e-02, 2.91276770e-03,
       1.46768820e-02, 1.47119705e-02, -1.11697894e-02, 6.77427351e-02,
       -2.65596826e-02, 7.19100013e-02, -2.22743545e-02, 3.26147303e-02,
       2.79265847e-02, -8.41511693e-03, -1.18058706e-02, -2.74626333e-02,
       -2.60916501e-02, 1.12943696e-02, -3.00957579e-02, -1.20802401e-02,
       1.00486008e-02, -2.41745617e-02, -1.17953774e-02, -2.80037504e-02,
       -2.44203322e-02, -5.73845988e-04, -2.67687123e-02,
       -1.88623741e-02, -3.13197672e-02, -1.01693291e-02,
       -1.88680813e-02, 1.07437456e-02, -2.70006596e-03, -5.24474494e-02,
       6.30466416e-02, 2.36299150e-02, 7.27221891e-02, -1.30388374e-02,
       8.81174766e-03, 2.75047799e-03, 5.65974333e-04, -1.08933039e-02,
       -2.66265217e-02, 4.69060838e-02, -2.85162707e-03, 5.48611805e-02,
       -1.32779395e-02, -1.26945479e-02, -1.31625251e-03,
       -2.79789604e-02, -2.05964837e-02, -3.63166332e-02,
       -5.97004220e-02, 2.93803643e-02, -4.30604145e-02, -4.54952307e-02,
       1.29515689e-03, -1.60967708e-02, -2.70290636e-02, 1.95956547e-02,
       -1.46685448e-02, -4.31605391e-02, 3.21287364e-02, 1.20616262e-03,
       -6.21967725e-02, -4.34384914e-03, -2.56879032e-02,
       -1.82436537e-02, -1.30742812e-03, -7.54546840e-03,
       -1.94649454e-02, 1.37459571e-02, 7.72526721e-03, -3.35670672e-02,
       -1.63741000e-02, -7.38727488e-03, -6.51371991e-03, 1.86197851e-02,
       -9.54343565e-03, 4.39045914e-02, -1.02638854e-02, 9.60013270e-02,
       -2.36598328e-02, 1.83109343e-02, 1.39214899e-02, -2.94865817e-02,
       -4.12443932e-03, -4.82317731e-02, -1.01778395e-01, 3.93165424e-02,
       -6.55063987e-02, -5.32900915e-02, -1.03387248e-03,
       -4.38560806e-02, -6.60239905e-03, 8.09771940e-03, -2.62568872e-02,
       1.64465066e-02, 2.02590562e-02, -1.27664711e-02, -4.27895598e-02,
       -2.73732847e-04, -3.25429849e-02, -1.50689343e-02, 7.51358317e-03,
       -4.50988412e-02, -4.57203910e-02, 2.97048781e-02, 1.42288562e-02,
       -2.87298597e-02, 1.32821212e-02, -1.19336685e-02, 5.48082031e-03,
       2.79314145e-02, -3.33077484e-03, 8.94061625e-02, -2.76649594e-02,
       9.34573263e-02, -1.86685789e-02, 1.83615535e-02, 4.09465795e-03,
       -6.12420635e-03, 8.68179370e-03, -2.81015877e-02, -8.66896957e-02,
       5.03020510e-02, -1.13844402e-01, -3.11674643e-02, 4.37739566e-02,
       1.22721335e-02, -5.55338301e-02, -1.14130210e-02, -3.66646349e-02,
       -8.91389921e-02, 6.91434294e-02, -8.98898020e-02, -6.72290474e-02,
       3.23367096e-03, -4.42533307e-02, 2.20345538e-02, 4.18171473e-02,
       -1.59726087e-02, -1.94268096e-02, -6.71504112e-03,
       -7.71557391e-02, -4.17382196e-02, 3.29090431e-02, 3.43768746e-02,
       -2.54663825e-02, 1.35762955e-03, -4.65873592e-02, -3.09608374e-02,
       -3.72066884e-03, -4.31745723e-02, -7.22334608e-02, 5.66018233e-03,
       -1.41018722e-02, -4.30364758e-02, -4.13305573e-02,
       -9.46671143e-02, 2.25880882e-03, 6.71409592e-02, 3.11470416e-04,
       -9.06560048e-02, -3.32276188e-02, -2.37461515e-02,
       -1.24630313e-02, -2.08255071e-02, -2.95534339e-02,
       -6.80026179e-03, 5.40385656e-02, -6.94794394e-03, -3.18899155e-02,
       -1.39850713e-02, 2.95543368e-03, -2.23383177e-02, -1.21764215e-02,
       -6.66797608e-02, -4.37548272e-02, -1.45863453e-02, 5.41513190e-02,
       -1.09934501e-01, -2.58858707e-02, -1.50866890e-02,
       -1.87977515e-02, 4.98176692e-03, 8.07006098e-03, -9.75715276e-03,
       5.52381109e-03, 2.42406111e-02, -3.56379971e-02, 8.66879523e-03,
       -7.26200594e-03, -3.22332582e-03, -6.66106399e-03,
       -4.98142187e-03, 2.08712500e-02, -8.23223614e-04, 3.51609923e-02,
       2.25247745e-03, 1.32865384e-02, 1.22663910e-02, -2.44986564e-02,
       4.59074974e-03, -1.34882471e-02, 1.96525007e-02, -4.52700891e-02,
       1.86146181e-02, -9.06666461e-03, -1.10505149e-03, -2.42642686e-02,
       1.73012353e-03, 2.61877757e-02, 3.12938094e-02, 1.56881511e-02,
       -2.97698975e-02, 3.19898091e-02, 9.51866270e-04, 2.68523600e-02,
       -2.86439271e-03, -1.28005212e-02, 1.00244414e-02, -6.61568949e-03,
       4.40410897e-02, -3.78938690e-02, 3.04847751e-02, -6.02137158e-03,
       2.95490585e-03, -1.42360637e-02, -4.00608405e-02, -2.33151130e-02,
       -1.76406875e-02, -1.05195935e-03, 5.48485816e-02, -1.25998110e-02,
       -1.32342568e-02, -4.69161524e-03, -1.97328571e-02,
       -4.00955379e-02, -3.03313434e-02, -2.41480600e-02, 1.99033320e-02,
       2.30202619e-02, 8.46799649e-03, -3.96746844e-02, -2.99750851e-03,
       -2.18202472e-02, -1.27292024e-02, -9.66039766e-03,
       -4.94752685e-03, 5.45609854e-02, 2.35730913e-02, 3.17331008e-03,
       -3.30109522e-02, -2.33874973e-02, -1.91652011e-02,
       -1.01571186e-02, -3.41583379e-02, -3.33542228e-02, 5.92137836e-02,
       1.27414428e-03, 2.19864119e-02, -6.49633557e-02, -2.42110994e-02,
       -2.37748143e-03, -8.17325898e-03, -2.06810944e-02,
       -4.49428931e-02, 8.70919041e-03, 2.51186714e-02, 5.34715480e-04,
       -3.07296868e-02, -1.04541965e-02, 6.17521023e-03, 7.69888936e-03,
       -1.75190736e-02, -3.86096016e-02, -2.18998194e-02, 3.20368595e-02,
       2.91707944e-02, -3.67603786e-02, -3.96621116e-02, -8.50861054e-03,
       -1.90260075e-02, -1.82539504e-02, -2.95049977e-02,
       -1.73087921e-02, -1.63919870e-02, 1.01803821e-02, -6.70926422e-02,
       -2.04539057e-02, -1.52145941e-02, -1.55972708e-02,
       -1.41202025e-02, -5.04132248e-02, -3.56594147e-03,
       -2.63915733e-02, 3.52819934e-02, -5.13399020e-02, -2.62877792e-02,
       -2.03115251e-02, -1.91022865e-02, -1.29364431e-02,
       -1.76216643e-02, -2.03009881e-02, 4.82087769e-02, -2.43350733e-02,
       -2.67311130e-02, -2.27601789e-02, -1.47652635e-02,
       -2.07847748e-02, 5.45974646e-04, -1.79198850e-02, -2.04832177e-03,
       2.09843125e-02, 3.22384797e-02, -1.30083747e-02, 4.50380147e-03,
       6.09432533e-03, -3.13492529e-02, -1.06429690e-02, -4.28762510e-02,
       9.24331509e-03, -6.56934269e-03, -5.08026816e-02, -4.69224788e-02,
       -9.52812191e-03, -1.42550226e-02, -1.80296376e-02,
       -4.77494998e-03, -2.49495320e-02, 2.31479350e-02, 2.37117931e-02,
       7.79502420e-03, -3.03436164e-02, 1.20765688e-02, 1.23935724e-02,
       -2.40551773e-02, -1.57611119e-03, -3.48426141e-02,
       -8.19858238e-02, 3.89524363e-02, -5.23954406e-02, -1.96089204e-02,
       6.50488120e-03, -1.00475671e-02, -1.91822592e-02, -4.03425802e-04,
       -3.16464379e-02, 1.48822013e-02, -5.22264047e-03, 4.64265905e-02,
       -2.64927670e-02, 4.72972577e-04, -1.69645492e-02, -2.68426221e-02,
       -1.24430761e-03, -3.00129540e-02, -6.67532831e-02, 2.57532168e-02,
       -7.59646446e-02, -5.54302856e-02, -1.87930036e-02,
       -3.84371839e-02, -1.95773393e-02, 4.47576772e-03, -2.42495611e-02,
       2.14203242e-02, -2.90087536e-02, 6.31753802e-02, -4.48526815e-02,
       -4.13222611e-02, -3.11911441e-02, -7.24814041e-03, 1.71242189e-02,
       -4.53053601e-02, -7.66403675e-02, 2.05006674e-02, -1.00298628e-01,
       -5.30394129e-02, 1.74708618e-03, -5.40803932e-03, -3.69609222e-02,
       2.16482003e-04, -6.19450063e-02, -9.77786481e-02, 3.81307490e-02,
       -7.52434880e-02, -6.63035363e-02, 1.92419160e-03, -4.07899991e-02,
       -1.32042859e-02, 1.55443950e-02, -5.17574102e-02, -7.97436461e-02,
       6.95956041e-05, -8.17627311e-02, -5.13987318e-02, -1.01936599e-02,
       -1.53620429e-02, -4.63262200e-02, 1.20817814e-02, -7.12374672e-02,
       -7.43000433e-02, -1.34247551e-02, -9.81347188e-02,
       -6.13742359e-02, -7.45567353e-03, -5.87838963e-02,
       -3.08176260e-02, -3.16898189e-02, -4.95803133e-02,
       -5.30766137e-02, 6.66037574e-02, 7.36590326e-02, -9.77102742e-02,
       -3.46661992e-02, -2.44123619e-02, -2.54254676e-02,
       -2.09636264e-03, 9.65256244e-03, -5.20505421e-02, 2.82721631e-02,
       2.24844739e-02, -4.87546958e-02, -2.01490824e-03, -1.15228002e-03,
       -5.39747886e-02, -2.95996126e-02, -2.04423927e-02,
       -4.02546562e-02, 5.77079728e-02, 1.48218066e-01, -9.39113125e-02,
       -5.95982671e-02, -5.83378002e-02, -3.11418269e-02, 9.37908795e-03,
       1.72221083e-02, -3.36451530e-02, 3.59135903e-02, 2.76216250e-02,
       -8.57298598e-02, -1.85943935e-02, 1.64201763e-02, -1.49302417e-02,
       1.25652207e-02, 2.86425278e-02, -9.47490160e-04, 1.53153697e-02,
       1.71965249e-02, -3.46479639e-02, 5.38780307e-03, -1.56187899e-02,
       -2.28908919e-02, 3.23252566e-03, -8.20633490e-03, 3.21180783e-02,
       -4.11208998e-03, 3.25561166e-02, -9.75656044e-03, 4.93738055e-03,
       -3.94157656e-02, -5.71747264e-03, 7.41358753e-03, 2.47844458e-02,
       -1.52526144e-02, -1.06782909e-03, 1.09304460e-02, -6.55413494e-02,
       2.96394397e-02, 4.50699404e-02, -5.08096404e-02, -3.35318819e-02,
       -2.00857911e-02, 2.94550676e-02, -1.21621573e-02, 2.90151350e-02,
       -4.52663377e-02, 1.63193848e-02, -2.98120622e-02, 2.64089163e-02,
       1.62783246e-02, 1.30948727e-03, 2.69068163e-02, 1.39759984e-02,
       2.97439136e-02, 1.98403909e-03, 1.54155781e-02, -2.25792788e-02,
       6.53239666e-03, -6.73547969e-04, -4.14322838e-02, -2.97001898e-02,
       -3.87714244e-02, 2.03629397e-02, -3.04276031e-02, 1.42740961e-02,
       4.26886417e-03, -3.27427639e-03, 2.86745257e-03, -2.72362580e-04,
       2.90676486e-02, 6.33400027e-03, 2.13028025e-02, -3.01924925e-02,
       1.62578393e-02, -2.46130880e-02, 6.18320471e-03, -1.21936584e-02,
       -2.95253228e-02, -9.19047743e-03, -4.95920479e-02, 2.93828994e-02,
       -2.37275772e-02, -4.34531737e-03, -1.41277891e-02, 1.17418030e-02,
       1.69783644e-02, -1.20438058e-02, -3.65581885e-02, -1.80390421e-02,
       2.67672259e-02, 3.32763186e-03, 2.23763827e-02, 2.31187716e-02,
       2.94523090e-02, 3.12922411e-02, 8.96600541e-03, 1.90589428e-02,
       -1.20388786e-03, 2.02056859e-02, 8.97346472e-04, 2.96515375e-02,
       2.18964443e-02, -2.79810913e-02, 6.98717544e-03, -2.77005043e-02,
       -2.78190058e-02, -1.35824699e-02, 1.24550313e-02, -2.01284811e-02,
       -1.37103172e-02, -1.92115903e-02, -5.02647553e-03, 1.80366114e-02,
       7.16137653e-03, 1.46227202e-03, -2.01181285e-02, -2.30807904e-02,
       -2.69505810e-02, -3.78846540e-03, -2.35473607e-02, 4.66971513e-04,
       5.23531670e-03, -1.96395889e-02, 1.21401604e-02, 1.72173679e-02,
       -5.22840694e-02, -5.26613044e-03, 3.25391479e-02, 4.72655427e-03,
       -1.99912880e-02, -2.82199867e-03, -1.42542329e-02, 1.97920613e-02,
       1.17040491e-02, 5.31821325e-03, -1.68288779e-03, 4.15230021e-02,
       1.79466270e-02, -8.15079268e-03, -9.60396696e-03, -1.19058453e-02,
       -3.64758749e-03, -8.16483703e-03, -5.71170375e-02,
       -3.68865170e-02, 7.77104264e-03, -2.67902762e-02, -3.03273108e-02,
       -8.56738538e-03, -2.65245922e-02, 7.45174242e-03, -2.19539162e-02,
       2.98802275e-02, -1.51918375e-05, 1.87476128e-02, -7.42901396e-03,
       -1.34112975e-02, 1.86349042e-02, -7.31153088e-03, -2.12846491e-02,
       5.62135167e-02, -6.57728687e-02, -2.01141387e-02, 1.70135088e-02,
       -4.49864528e-05, -3.64006311e-03, 2.71201748e-02, 6.57125888e-03,
       4.13901396e-02, -2.17907652e-02, 6.94373474e-02, -1.09075764e-02,
       -5.53443888e-03, 7.68179400e-03, -3.18629518e-02, 9.44095850e-03,
       -3.01607437e-02, -4.67434637e-02, -1.53390812e-02,
       -6.24329858e-02, -4.06682380e-02, -2.56349589e-03,
       -1.89894587e-02, -2.57752221e-02, 5.92824444e-03, -1.60856266e-02,
       1.53070791e-02, -3.40185948e-02, 9.25990343e-02, -8.16239044e-03,
       2.07356014e-03, -3.08510270e-02, -7.18460232e-03, 2.04423117e-03,
       -3.94274518e-02, -6.53206557e-02, 5.61119467e-02, -2.63130199e-02,
       -1.97953731e-02, 5.88120613e-03, 8.03527050e-03, -1.47111202e-02,
       1.25622563e-02, -4.00555804e-02, -2.01734509e-02, 4.76299450e-02,
       -6.73678815e-02, -3.24266441e-02, 5.44586964e-03, -1.34743773e-03,
       -1.38407657e-02, 2.94171972e-03, -5.48976995e-02, -6.68154731e-02,
       3.01903021e-02, -4.36616689e-02, -5.88922910e-02, -1.57734342e-02,
       -1.64514314e-02, -5.47401644e-02, -2.68769842e-02,
       -9.91556272e-02, -1.24712437e-02, -3.74245481e-03,
       -9.01526362e-02, -4.27541211e-02, -1.37267529e-03,
       -4.71053272e-02, -6.26961663e-02, -2.79180948e-02,
       -8.95655528e-03, -4.30782698e-02, 3.08372341e-02, 1.00717373e-01,
       -2.14765090e-02, 2.32473444e-02, -1.67523380e-02, -4.01860522e-03,
       -1.27155324e-02, 1.68230850e-02, -1.10955527e-02, -1.59647372e-02,
       1.57696344e-02, -1.31875994e-02, 3.14245299e-02, 5.04016280e-02,
       -6.78982884e-02, -1.62089150e-02, -2.37120725e-02,
       -5.14674112e-02, -8.47570598e-03, 4.99552749e-02, 5.20032505e-03,
       4.83509563e-02, 3.09437197e-02, -2.56184377e-02, -1.29151661e-02,
       1.89340999e-03, -1.69367623e-02, -2.90999021e-02, -4.59475908e-03,
       1.93391759e-02, 3.46435681e-02, 3.27780768e-02, -7.23865861e-03,
       -2.23600566e-02, -1.00024780e-02, -8.12226813e-03, 1.59891024e-02,
       1.20204431e-03, -5.47574200e-02, 3.31577696e-02, 6.57687038e-02,
       3.73996911e-03, -2.61540525e-02, -2.58533610e-03, 1.51709849e-02,
       -3.63366096e-04, -2.14168075e-02, -5.09972088e-02, 1.83994398e-02,
       1.92152075e-02, -1.18651362e-02, -6.27685850e-03, 3.60499090e-03,
       -1.93064623e-02, -6.35319157e-03, -1.92493573e-02,
       -2.08867658e-02, 3.15067172e-02, 3.44500393e-02, -4.29108832e-03,
       1.58918314e-02, 2.61859241e-04, -2.30159033e-02, -1.88868400e-02,
       -5.76459616e-02, -5.46841696e-02, 7.34436791e-03, -2.09342260e-02,
       6.65130559e-03, -8.43213964e-03, 1.18624745e-02, 4.51577194e-02,
       6.01182245e-02, -2.00214628e-02, -1.98778659e-02, 1.63803175e-02,
       1.09140817e-02, 1.98936593e-02, -2.22017523e-02, -2.82617044e-02,
       -2.84167123e-03, 2.16755494e-02, -8.73460900e-03, -2.37042271e-03,
       1.36814751e-02, 3.78433391e-02, -5.93157206e-03, 2.60698088e-02,
       2.62749679e-02, 2.30360031e-03, 3.68275903e-02, -1.08411424e-02,
       1.94171967e-03, 5.47811156e-03, -2.46406235e-02, 7.18376774e-04,
       2.01944206e-02, -1.97956208e-02, -1.98155008e-02, 1.21902926e-02,
       2.60033049e-02, 1.15997903e-02, 7.28823850e-03, -1.91370659e-02,
       4.99464758e-02, 3.82694453e-02, -4.97723604e-03, 7.66223343e-03,
       1.20104514e-02, -1.09165264e-02, -4.57009906e-03, 2.19811462e-02,
       2.01962665e-02, 1.73624214e-02, 1.99282840e-02, 3.01282480e-02,
       1.40400995e-02, -9.84623656e-03, -2.59910300e-02, -2.51547098e-02,
       -1.88349336e-02, -1.79508124e-02, 3.98110598e-02, 7.31275380e-02,
       3.81426401e-02, 1.63698718e-02, 2.37404201e-02, 9.28716268e-03,
       -3.19706672e-03, -2.42560543e-03, -2.14261841e-03, 2.45272298e-04,
       3.11946254e-02, -1.10552064e-03, 1.21586006e-02, 2.87129525e-02,
       -3.68240639e-03, -1.55896340e-02, -9.95017588e-03,
       -3.75888199e-02, -1.59640573e-02, -1.18128220e-02, 1.17056146e-02,
       3.24584893e-03, 2.71632546e-03, -2.13167574e-02, -1.39673492e-02,
       1.75337610e-03, -1.04054343e-02, -1.48172928e-02, -5.83358202e-03,
       2.34219320e-02, 2.54465435e-02, 3.74795916e-03, 4.21672873e-02,
       -1.00104036e-02, 1.82138477e-02, 5.34042483e-03, -3.59501019e-02,
       -3.95081565e-02, -4.34575714e-02, -1.80407986e-02,
       -1.40405130e-02, -5.49814524e-03, 1.23510268e-02, 1.94836557e-02,
       -4.28442731e-02, -4.95954081e-02, -5.09678572e-02,
       -2.33637355e-02, 2.39955466e-02, 1.10050496e-02, 3.72943357e-02,
       -2.99682580e-02, 2.12698383e-03, -2.71989275e-02, -4.14447822e-02,
       -1.49744358e-02, -2.62126662e-02, -1.62191037e-03, 1.73860360e-02,
       1.53623419e-02, -2.30666604e-02, -1.53957121e-03, -1.75633654e-02,
       -8.87432136e-03, -1.23540813e-03, -1.31987799e-02, 6.37106448e-02,
       -4.77844141e-02, 1.29949972e-01, 2.48498097e-03, 1.90445166e-02,
       5.25815925e-03, -4.67527211e-02, -3.03375684e-02, -3.38664837e-02,
       -1.23836314e-02, 6.98383711e-03, 2.40588444e-03, -4.48090769e-02,
       -2.03781053e-02, -3.48862000e-02, -6.88940566e-03, 1.07983677e-02,
       -3.81816328e-02, -1.67975482e-02, -4.70444970e-02, 7.72225335e-02,
       -6.75659813e-03, 1.79746225e-02, 1.51310936e-02, 1.21185984e-02,
       1.38682453e-02, -3.38262394e-02, 2.92165577e-02, 4.43483703e-02,
       2.46350467e-02, -1.65334418e-02, 1.95841379e-02, 1.16892243e-02,
       -2.98638716e-02, -4.00753645e-03, -6.83628917e-02, 9.41963568e-02,
       8.93736631e-02, 2.66080685e-02, 1.94920916e-02, 2.58831847e-02,
       -4.57485802e-02, 9.24060587e-03, 2.62212362e-02, -2.28918567e-02,
       -4.42191623e-02, -2.85114553e-02, -5.00920750e-02,
       -5.60386106e-03, 9.22077987e-03, 1.83011293e-02, -8.45496058e-02,
       -1.27674062e-02, -5.72089180e-02, 8.70890319e-02, 5.92240691e-02,
       -7.37775043e-02, -1.42078986e-02, -7.82785099e-03,
       -9.65431854e-02, -2.68351734e-02, -1.22632077e-02, 4.78317821e-03,
       -2.85003614e-02, -4.92942892e-02, 3.30008790e-02, 3.96596678e-02,
       7.97408968e-02, 4.69219200e-02, -6.00706832e-03, -1.59842987e-02,
       4.06853966e-02, 6.91672973e-03, -3.54711302e-02, 2.36413125e-02,
       3.13422047e-02, 8.02554488e-02, 7.32760131e-02, -5.15017621e-02,
       -1.27890231e-02, 1.96888950e-02, -5.18077053e-02, -1.44756511e-01,
       -1.09731546e-02, 5.65810390e-02, 1.07495725e-01, 2.74081603e-02,
       -2.19771639e-03, -1.77131612e-02, 3.35836820e-02, 1.07252728e-02,
       -6.98430538e-02, -2.23647393e-02, 3.10861487e-02, 1.02949470e-01,
       7.72297680e-02, -1.87562946e-02, 2.15136968e-02, 2.67872401e-02,
       -2.69367965e-03, 7.53921084e-03, 1.27331633e-02, -1.73897799e-02,
       4.96754348e-02, 5.91596141e-02, 1.15154563e-02, 3.94195877e-02,
       1.12182945e-02, 3.46745458e-03, 1.89290438e-02, 1.10064382e-02,
       9.25548468e-03, 4.49671447e-02, 4.38435748e-02, 1.24817789e-02,
       3.07354722e-02, 2.87640598e-02, -3.24685383e-03, 2.29472741e-02,
       -3.75674409e-03, 2.80741672e-03, 8.36847797e-02, 7.56391287e-02,
       1.27947819e-03, 4.96347547e-02, 2.78641228e-02, 3.02819628e-02,
       2.81049926e-02, 9.42258537e-03, -1.09995445e-02, 6.87561333e-02,
       2.32204814e-02, 1.14584249e-02, 3.93032916e-02, 4.20645671e-03,
       5.70851332e-03, 2.34612469e-02, 3.61046717e-02, 4.24272493e-02,
       3.07083894e-02, 3.16153280e-02, 1.61332563e-02, 4.80235927e-02,
       2.26243250e-02, -1.52077142e-03, 2.59065460e-02, 2.87172850e-02,
       3.08040734e-02, 3.05577070e-02, 7.47773191e-03, 1.78901926e-02,
       7.06227869e-02, 2.68246774e-02, 3.43271270e-02, 2.81077083e-02,
       3.49101759e-02, 5.52028492e-02, 7.91574866e-02, 6.35631010e-02,
       -2.84475815e-02, 5.87565489e-02, 2.17224611e-03, 9.81557649e-03,
       1.50100114e-02, 1.82095729e-02, 7.96402991e-03, 6.52989447e-02,
       2.30160542e-02, 2.65097078e-02, 6.01902716e-02, 4.76788506e-02,
       4.36915159e-02, 3.46676335e-02, 4.01160158e-02, 8.95208120e-03,
       2.56568678e-02, 8.81985202e-03, -2.30790189e-04, 3.95799056e-02,
       4.88124369e-03, 2.06203405e-02, 3.37181874e-02, 2.22498924e-02,
       1.64141655e-02, 1.49535453e-02, -1.94442421e-02, -3.52529697e-02,
       3.84633429e-02, 1.77661870e-02, 1.63071938e-02, 1.82875600e-02,
       4.63189259e-02, -1.18592696e-03, 4.65358123e-02, -9.59145138e-04,
       1.21479901e-02, 6.89328313e-02, 4.33345102e-02, 1.39299165e-02,
       -1.66478362e-02, 2.70090401e-02, -5.68159251e-03, 2.11305507e-02,
       -2.87214690e-03, -5.94066409e-03, 1.83414202e-02, -2.64055934e-02,
       -1.11394643e-03, 3.89267430e-02, 3.53774764e-02, 4.00858112e-02,
       4.13409248e-02, 9.17522982e-03, -4.65372723e-04, -1.13515081e-02,
       -1.74350291e-02, 4.31371061e-03, -6.32296782e-03, 4.08992264e-03,
       -4.89972904e-03, 3.59153771e-03, 2.09337883e-02, 4.04417478e-02,
       8.54602084e-02, 1.95016526e-02, -1.85726751e-02, 3.11077037e-03,
       2.95025017e-02, 4.09337021e-02, 4.20959555e-02, 1.38616543e-02,
       2.14315839e-02, 2.73887832e-02, -1.01750344e-02, -6.27832040e-02,
       -2.21809503e-02, -1.61162522e-02, 2.32671630e-02, 3.76428068e-02,
       2.98696086e-02, -1.41881639e-02, -1.21838832e-02, 5.47527196e-03,
       1.64256301e-02, 1.76390521e-02, 2.91234925e-02, -1.52133231e-03,
       -1.31367389e-02, 1.92117356e-02, 2.96832938e-02, -1.93808216e-03,
       -9.55377298e-04, 2.45529171e-02, -3.63981612e-02, 7.22080767e-02,
       4.25492674e-02, 4.13354188e-02, 6.65699095e-02, 1.45751741e-02,
       -3.78432125e-03, -1.54281296e-02, -5.62701784e-02,
       -9.77190286e-02, -1.25608994e-02, -1.85194500e-02, 1.57531425e-02,
       8.78604650e-02, 6.67165816e-02, 3.42288311e-03, 3.60239530e-03,
       -1.72587764e-02, -3.16416770e-02, 3.42248231e-02, 1.97414104e-02,
       9.90592539e-02, 1.49898306e-01, 7.59596676e-02, 4.63432260e-02,
       2.84804422e-02, 2.94270031e-02, -1.21857123e-02, 3.06624901e-02,
       6.53191656e-02, 7.15424344e-02, 1.19000025e-01, -1.81939434e-02,
       2.80540250e-02, 1.87216587e-02, 1.78198993e-01, 9.39659551e-02,
       -3.64170186e-02, 1.19983889e-02, 2.79065240e-02, -6.81404769e-03,
       6.69004768e-02, 2.21316628e-02, 2.93386821e-02, 2.01528221e-02,
       -7.74153322e-02, -5.36465757e-02, -9.96327959e-03, 5.85750602e-02,
       1.33324385e-01, -5.52138761e-02, 8.46691150e-03, 3.58067527e-02,
       1.39421046e-01, 1.32205123e-02, -1.75662011e-01, -7.66271353e-02,
       -1.26592666e-02, -4.76189367e-02, -1.33381820e+00 ]
